[
    {
        "num_neurons": 784,
        "activationf_name": "input",
        "weights": null,
        "biases": null
    },
    {
        "num_neurons": 30,
        "activationf_name": "sigmoid",
        "weights": [
            [
                -1.0643506253105877,
                0.5125548473925405,
                -1.3353491670386226,
                -1.0074347087459585,
                0.7492299684825008,
                0.22447420345414812,
                -1.480000736778063,
                -0.8123135330120959,
                -1.7163285402000101,
                -0.31783524608806185,
                0.9620384366496108,
                -1.7504228875356207,
                0.20649052289055056,
                -1.1658534751118004,
                1.0568473669201202,
                1.5442283864674988,
                0.6695981297023179,
                0.10756601956478355,
                0.5823870835880564,
                -1.719584985611135,
                0.5798265141941985,
                -0.36767137606539113,
                0.33479223668107866,
                0.6696636089085221,
                1.7015639598463705,
                -1.1588295177270105,
                0.4803869994580813,
                -0.04283772916843119,
                -0.2406560894671488,
                0.8358467918473519,
                0.22444144767398136,
                -0.6600668279648699,
                -0.35959368240080086,
                -1.0013904808930543,
                1.8403289051050542,
                0.48963251685430165,
                0.07667899482330892,
                0.5159138887549625,
                0.7158169672532269,
                2.0080254412634595,
                -0.7755013857879817,
                -0.7047176221983911,
                0.4491315821932412,
                0.8463697776867769,
                0.17214141013222956,
                0.031100229430816563,
                -0.274035062270234,
                1.1096623523059614,
                0.4734257664197061,
                -0.9317755984674496,
                0.4526268045574987,
                -0.1547228277824267,
                0.10106153028412558,
                -0.20834971580253298,
                1.7611158576206272,
                -1.2027173289105892,
                0.32739893205116627,
                0.4628472678469073,
                0.8381042379226094,
                -0.979364338084861,
                0.19118460713245458,
                -0.920197066500006,
                1.4015512329105735,
                -1.0004714711734757,
                -2.2268050286716505,
                0.4249889596441912,
                0.6343324110348122,
                -2.0800657972928467,
                -1.3080579546317799,
                -0.46904978595666513,
                -0.7965507702665188,
                -0.03066274607391226,
                0.8608428310937967,
                -0.4796743073225681,
                -0.3511043276097428,
                0.9296028862341672,
                -0.6124920969402652,
                -0.4414503723145411,
                -1.298637520084142,
                0.053292906853787285,
                -0.13654665353490544,
                0.3124661522578392,
                1.1693287725202062,
                0.7849765433448787,
                0.1295041807106786,
                0.933252767054258,
                0.2585420238928875,
                -0.3659639287403559,
                0.6446977444568369,
                -1.2633004441921336,
                1.6105244556399663,
                -0.7371313078975162,
                -0.3707345162925445,
                -1.0013324691168177,
                0.6388734155882749,
                0.26852922428383447,
                0.6848338225508345,
                -0.2510799764607205,
                -0.1502552840985547,
                1.5754404568668166,
                0.4963664084153491,
                0.6522879117609539,
                -0.3922147625929882,
                -0.33518411034589785,
                -0.6441577140714845,
                -0.8798555068389703,
                1.2700470243784356,
                1.2822335045936402,
                0.046964690983327985,
                -1.3747886824226936,
                -0.018206714875037593,
                0.6177605604944286,
                -0.29491737292218495,
                -1.1722183918301725,
                0.05273628679000526,
                0.030242948925120586,
                -1.7166200541652974,
                1.073918160593066,
                0.2917250365054686,
                -0.3103406493801687,
                0.3681444314280765,
                1.0784479981292527,
                0.6724920993558706,
                2.08855663118328,
                1.8607151458998763,
                0.42968776744159354,
                -0.12535569288457085,
                1.1224564625531608,
                -0.10341631649469041,
                0.28515714468449305,
                -0.7860975733490111,
                0.965775285565195,
                -0.5669633885431502,
                -0.010701850017661923,
                -1.487725515951316,
                0.3622407176387519,
                -0.19052431742809078,
                -0.18987116822316005,
                0.866345091485893,
                0.1317800351243833,
                -1.053886833190066,
                1.0460782585100399,
                1.5451108448416078,
                0.6289063022356343,
                -1.744112119005281,
                1.9690469348004056,
                0.0016423794496480504,
                1.2500261616067283,
                0.6679266550067723,
                -1.5432736807831395,
                2.3717263793426486,
                0.5411494651510718,
                1.809084552960316,
                0.1868158937871469,
                0.4339912515310039,
                0.6992081989180119,
                -0.301364318945303,
                1.5104158986305853,
                0.6312742342781463,
                0.38380984070394764,
                1.050372047374646,
                -0.7348981231477364,
                -0.7565856687362,
                0.3846507715252475,
                -1.2824408456809415,
                0.4345535636156002,
                -1.0192484617324598,
                0.09254005297649384,
                -2.0459563910677403,
                -0.11714048853321582,
                -0.5296044282816191,
                0.14146470095457853,
                1.052660214990448,
                1.5013043617045287,
                1.5614548801646373,
                0.10729909210448717,
                0.7528666138082059,
                -0.6231266687282925,
                -0.011475465428843437,
                0.36116122880526824,
                0.5133549674200154,
                1.130633575917543,
                0.01846456175559974,
                -0.5720663263527874,
                0.4619185855677373,
                0.08498312220861173,
                0.6922333657341626,
                0.19909859700383273,
                -0.9532988590100084,
                1.0645193598511054,
                1.3361223896318681,
                -0.252201026282715,
                -0.36807836368891095,
                -0.005071737702609827,
                0.9108689987500546,
                0.8928641074074039,
                -0.21124272747916878,
                -0.13549848519761978,
                -0.2610644705751154,
                -2.160087532543932,
                1.9401132456384236,
                -0.9558799810197997,
                1.298276742459627,
                2.345212007630633,
                -0.34215816363572565,
                -0.677618414377213,
                0.33692632489028396,
                -1.203791072648539,
                1.2466977119000384,
                0.3703180263311821,
                -0.8090898263951846,
                0.10761795752351491,
                1.5542116741141538,
                -0.4207422545279036,
                0.3413930673862583,
                0.17086957076514447,
                -0.18554176030572164,
                -0.6269333286786459,
                -1.0352055981123216,
                0.787522539034431,
                -0.24959964926682982,
                0.8886516412606885,
                0.5450252284229908,
                -0.9331227461415235,
                -0.506587614456957,
                0.040630518172092255,
                -0.5328903809215777,
                -0.6324133843253368,
                1.3726493994644788,
                2.1630160970066172,
                1.6519015307490446,
                -1.3535760790856384,
                0.2887833441519856,
                0.30377443904641555,
                -0.03744015995790441,
                -0.13950676963895495,
                -1.702453577366342,
                0.5838738834888652,
                -0.564772994750372,
                -0.19647639558054944,
                -1.8785727158600276,
                -1.2769344503142541,
                1.005652979839786,
                0.6697511264227958,
                0.4580138530835303,
                0.8689985489488531,
                0.4767743313887413,
                -0.023329520421205688,
                1.3959254766595237,
                0.8373828951646225,
                -1.1208220318310218,
                -0.14853764611551723,
                -0.28192024060558746,
                1.5197988200607817,
                -0.6707238396020568,
                1.459170041615223,
                0.33182615029433465,
                2.382142980737051,
                -0.038767495671492014,
                0.30457436385961795,
                -0.386123477666421,
                0.6178940497034325,
                -0.5613503634541226,
                1.2247823174731,
                -0.47485651477968116,
                -0.6297161355243871,
                -1.2613569934159024,
                -0.4939649136652611,
                0.417483627689997,
                -0.4539104263419799,
                0.5994855248774364,
                -0.46271747423907195,
                0.8740224827748414,
                0.4104406978694078,
                1.189022383736358,
                -0.43233923705461424,
                -0.5909515025762372,
                2.3633351957185256,
                0.24090119442440786,
                -0.14264752773219833,
                0.3295776093424824,
                -1.4929695574575574,
                -0.8027838639977769,
                -0.6744245102840534,
                0.011025686998283829,
                0.7579742144205781,
                -1.0826747696594115,
                0.5868193599291267,
                1.0570881227294722,
                2.1782370841122627,
                -0.14283417646541113,
                -0.5628321787526074,
                -0.7886210799074419,
                -0.7210660556573785,
                1.3083900369422077,
                -0.1130993199081464,
                -0.18249953810525063,
                1.4532992137280516,
                1.5075485192688092,
                0.14796322442682588,
                0.13379347078789475,
                0.3568809781429409,
                0.6610464916934051,
                -0.0826391257364633,
                -1.1930642370753681,
                -1.488083312458413,
                0.4193662910434372,
                0.3796973610594641,
                1.1689489681623355,
                2.1273988420516985,
                -1.9837237849157465,
                0.11309475952519002,
                -0.6268459407453812,
                -0.3050625885125565,
                -1.8050730726866793,
                0.8134898031241122,
                -0.41224101945995795,
                -1.0176684826969389,
                -0.9974780164177043,
                0.2820880617828056,
                1.4615522217815229,
                0.061997777387278526,
                1.0100698102684222,
                2.2700048813344287,
                1.37704419641878,
                0.24843661092125574,
                0.32194442754663605,
                0.26351511464899546,
                -2.248808240817199,
                -0.9421617375396057,
                -2.795446110592961,
                -1.5155332232616519,
                -0.8570072819578282,
                0.27943837407566086,
                3.3984971501947276,
                0.639147589963636,
                1.0001852557195774,
                -0.7314662373614775,
                0.010537003009346284,
                0.4250653045025364,
                1.544189755938437,
                -2.2748972133953624,
                -2.2424610230307325,
                -1.9302109092038742,
                -0.9947467707677032,
                -0.18501620257733356,
                0.6816323890869994,
                0.6993971792358475,
                0.2726897294872689,
                1.0908551972716831,
                1.1309501146403964,
                -0.2526788761769784,
                -0.7174309594380818,
                0.617937674264085,
                -1.3231554924422,
                -0.13838107086839,
                -0.8225594541090869,
                -0.10192989121093998,
                -0.4961976453628318,
                -2.0554210775709727,
                -1.7126164091255702,
                -2.0289349312945033,
                -0.4929978084394355,
                0.9747194364805689,
                -2.0072418322101533,
                -0.06581299023376687,
                -0.2540209937511948,
                1.2342037320980253,
                -0.10582375235137789,
                -2.545762739499614,
                -1.6844528744986182,
                0.1663959780183182,
                1.3295862828794076,
                0.7662841652277097,
                -0.22546805424880517,
                2.0081198367360598,
                1.3346111015262399,
                1.9913196960534139,
                1.6841402375693302,
                0.2321367287028247,
                -0.9769008867542454,
                -0.8715706854445716,
                -0.40109732472700566,
                -0.9250775580529864,
                -1.0299048476011883,
                -0.3777609154585829,
                -2.374983581815534,
                -1.572334342980679,
                0.23144286852565793,
                1.0820378270787105,
                -0.6427120349705346,
                0.4358178588901095,
                1.9599258100848602,
                0.6832802208006792,
                -0.14670850270019686,
                0.38575599943405725,
                -1.0503609446686029,
                -2.4004248832583395,
                -1.6621158969434866,
                -2.4468046396876795,
                -1.2887681695532114,
                -0.9585602947921378,
                -1.1460510052477086,
                0.6567845237248059,
                0.5169740293373178,
                1.1159479254531066,
                1.092754690276835,
                0.18092285146867956,
                0.8671026542865392,
                0.3186073518948978,
                0.2762199348929747,
                -1.0148646332673787,
                -0.5706163215029085,
                -1.2721184255183762,
                -1.128848387292579,
                -1.5452088357648768,
                0.43774293527736374,
                1.0434716168541407,
                0.716890835361588,
                -0.4915832485575114,
                1.9854566522772037,
                -0.01107733822296997,
                1.407333421923159,
                2.5201723296354848,
                0.8860491575995697,
                -2.134934107518714,
                -3.9724390754807293,
                -3.2099273187510966,
                -4.156080082581353,
                -1.0534187273456046,
                -0.08611501422939169,
                -2.6954170433423283,
                -0.03486545139378944,
                0.37046252337768826,
                0.10389473841550081,
                -0.6253293533814667,
                -1.380848091404921,
                0.33709115922350524,
                -0.2411004661154902,
                -0.6455582869920766,
                -0.3671413991299302,
                -0.5647909309297391,
                -1.3088690212244876,
                -2.0720550254989236,
                0.21978772479793948,
                0.797402330742168,
                -0.6289790691465327,
                -0.14833143913747104,
                -0.8335046030705274,
                -0.32462268653263027,
                -0.8292044479930005,
                -0.17595143891043777,
                0.45263968249774145,
                -1.7589263610378123,
                -2.7770888688413,
                -2.979118445576499,
                -2.825373479257131,
                -4.821148616217753,
                -4.112309459035454,
                -5.229482351791725,
                -3.1076170044190037,
                -0.8242291916925284,
                1.3768159624481693,
                -0.1874645902387666,
                -0.009888076870544571,
                -0.27478097847096494,
                -0.5011683208170198,
                -0.08488323262866336,
                0.16780604985971864,
                -0.33325413096448614,
                -0.2847004674305484,
                2.1502409524821355,
                0.6670779444646397,
                -0.09843233631111875,
                0.21277138929300812,
                -0.43875767427881446,
                0.06692577819806926,
                1.2679759276232039,
                0.18346190913562085,
                1.1190420182916314,
                1.3382855456515208,
                0.37365822504834,
                0.2707258629500403,
                -2.0505881687675,
                -1.4260176091952168,
                -1.589286227712115,
                -3.5376730359398407,
                -2.7241148565120215,
                -3.017178665850066,
                -2.1164789148057985,
                -1.700547142911361,
                0.19581523251509741,
                1.126044963584468,
                -0.7661500305319198,
                -0.19213384676715456,
                0.07957902634405833,
                -0.9741746104965293,
                0.5851641863833447,
                -1.7211235268053469,
                -0.054244924618023535,
                0.11571893229290156,
                -1.5585025874477019,
                -2.390280258025932,
                -0.3670336555922784,
                0.5796778025528047,
                1.4975490838125054,
                -1.5590903351899306,
                0.0029130626835076165,
                -0.13942294585275372,
                0.8587603320776482,
                0.2513078925465907,
                1.9616998078268006,
                0.552255239574395,
                0.5445557758843537,
                0.36467020123988747,
                0.9311030134675987,
                0.15518062911180136,
                -1.5053909650122392,
                -0.0008661406787521162,
                0.3131301938407532,
                0.4702338301158415,
                1.0280691301705815,
                1.3674071239864811,
                0.5318538559208136,
                1.6851021053246837,
                0.031405071874806074,
                1.2430937112219747,
                0.7195324878666565,
                1.2020590068908414,
                0.10852883153036845,
                1.459820270505443,
                -0.4323232811355752,
                1.220087766494339,
                -0.07692077922390927,
                -0.4336917866603319,
                1.6344093553910644,
                2.212419977807956,
                -1.3925046036171174,
                -0.08229314924588854,
                0.6595356007135207,
                2.1615039250903254,
                1.14843472092996,
                -0.37643402220089545,
                0.10530520251859819,
                0.28167062201297594,
                -0.3567858974541919,
                -0.7992067779523963,
                -1.0089032643767273,
                1.906061643016404,
                0.792428218842361,
                -1.6234208634505578,
                0.8123379697008262,
                0.019824295392412622,
                1.0859493437921053,
                0.49727689334947794,
                0.49418793070595834,
                -1.2908334707094968,
                -0.954861232428055,
                -1.5985484369086163,
                0.08459112809394297,
                0.8354414783047529,
                1.7530602270299267,
                -0.4982918665587512,
                1.899197031914881,
                0.3038852483753735,
                0.18432400978466776,
                1.7942224592461373,
                1.7008164250712754,
                0.5372686357497105,
                -0.41570539394869294,
                1.2171301451510248,
                2.3252752037278728,
                0.04221253504525951,
                0.2455070815562235,
                -0.8053178914032171,
                -0.5907451067933635,
                0.7889808759486705,
                1.297630930335891,
                2.012601912371193,
                1.6438545800711133,
                0.4960441380790226,
                0.9515173145075356,
                1.3818466168307064,
                1.1351673352532332,
                -0.16544029638357668,
                2.147391046042524,
                0.5119605027913038,
                -0.1665347826831123,
                -0.33489126179561457,
                -0.4848261728956553,
                1.6303750907385424,
                1.1945630327264,
                0.03148676298511056,
                2.423007597744717,
                1.7480171306815986,
                -1.7156561105361066,
                -0.22094650367571442,
                0.5087864518594876,
                1.0257045848181587,
                -0.5520507599178542,
                -0.8265849891046126,
                -1.746455108878679,
                0.03795836394178239,
                -0.12285722500757675,
                -0.8175882043841836,
                0.3833629457780576,
                0.3868798080330451,
                -0.6827197805890548,
                0.7965755672295826,
                0.20600832326912252,
                1.3362858986687178,
                1.5510583431991096,
                0.5009088973874729,
                -0.3451689064161429,
                -0.2719135433569867,
                0.5392556051978576,
                -0.14113239924490328,
                0.5708172606257571,
                0.11604124683133715,
                -0.9622587369768103,
                0.9329019078038525,
                0.7460458780367978,
                0.5798804340800942,
                1.0616103837767092,
                0.2562244570320676,
                0.3879634346333515,
                0.5717261379620083,
                0.6966316255774948,
                -0.2838205526469193,
                -1.0525746680445238,
                0.49819964739396244,
                0.821737277767695,
                -1.1961289344210895,
                -1.1141456988785186,
                1.7246850809240601,
                0.0969862819594154,
                2.267452587147264,
                0.9357761800042382,
                2.344602155761384,
                -0.35237725003114223,
                -1.081077937664285,
                0.5851135812352953,
                -0.7668706259706963,
                0.49851915774326977,
                -0.3272061331469563,
                -0.5453478436993245,
                0.14417205184000048,
                -0.7815353444943863,
                0.41193551988139204,
                -1.2594721730672294,
                0.7756881176001629,
                -1.7534751429046653,
                0.5912977333424447,
                0.21921761774378687,
                1.6411406497958763,
                -0.1258841185408444,
                -0.1496765471481562,
                -0.4064081181610247,
                0.15764037634822065,
                -0.8061611201728532,
                1.8573789459671983,
                -0.36908866995369966,
                2.194043095781298,
                -0.1445476254193378,
                0.905114056553016,
                2.111206518236946,
                -0.5238855619440345,
                0.4124089189320669,
                0.7391387883753638,
                0.5495200566376802,
                1.088776002841018,
                0.18236706372197137,
                0.1746375869005334,
                -0.6090534352944246,
                1.7984474988724009,
                1.7485883925844599,
                0.6523947853495861,
                0.34511094910032986,
                -1.2391154033350211,
                -0.11382902844958538,
                -0.22950830141415796,
                -0.13791688953580483,
                0.4017828144155082,
                0.10469967003793784,
                -0.7759393764501787,
                0.9104780791763849,
                -1.2385209231222547,
                0.5955677656115511,
                1.1051578138363365,
                -0.8363982226845552,
                0.3977491474946239,
                -0.7956411430940926,
                0.9543251463488066,
                1.092370811974801,
                1.8418559906337366,
                0.8064148041564349,
                -0.23240965760069363,
                0.9030012848816242,
                -0.51389896956414,
                0.3393833093998,
                -1.5583489010655813,
                -0.5591807608997559,
                -2.2572644051566697,
                0.981921790936819,
                0.9472995750341414,
                -0.7490760903642345,
                1.2993900326523544,
                -0.07707008271342068,
                -0.2920954482728267,
                -1.3618289501968381,
                1.6026041595489857,
                0.1682965996584685,
                0.7910240536850169,
                1.577622637445412,
                0.18426402255106647,
                -1.7506207675898833,
                -1.0401523378846043,
                -2.2868924466383875,
                1.7745914624564425,
                -0.5009447902400587,
                -0.5000642318748306,
                -0.33758318516509767,
                0.21908077323962655,
                0.04442834592881317,
                -0.055211253789987695,
                1.055016803942881,
                -1.2348177240409155,
                -0.5659231953854066,
                -1.4080956493674517,
                -0.8413813973172094,
                0.10259713958907671,
                -0.27596096039948737,
                -0.23895041269825482,
                0.7802629351675977,
                0.4145897100721857,
                -0.8104119796962013,
                -0.9492295071109031,
                -1.075511605633258,
                0.2779856392062769,
                -0.45098029743753876,
                -0.8812327257529873,
                -0.4560854025265398,
                2.7092604528190702,
                1.5114866893184158,
                -0.6785548272747464,
                0.46856511022641556,
                -0.5829676168339736,
                -1.5048422833984865,
                0.6533044364741052,
                -0.04445999725484905,
                -1.5305029085045088,
                0.49271210244561064,
                -0.17006026638874971,
                0.7377168521447155,
                -0.460818281389872,
                -0.8558805727289774,
                -0.01601650700748871,
                -1.3377858801701996,
                -1.185571325842163,
                0.8370738938676726,
                -0.16922558564735518,
                -0.12769544580536868,
                -0.32346805483681734,
                0.49295730277904437,
                1.1698650036327096,
                0.35694641621332074,
                -0.27227821087137954,
                0.37768385003447097,
                0.9134748543789666,
                -0.03208283276971094,
                -1.216904515052252,
                1.540987757611955,
                -0.08361316088295942,
                -1.557755812008339,
                -0.21495154323566923,
                0.1134772241702026,
                1.7843031753269367,
                0.46270218013766024,
                0.15286034587584477,
                -0.31611554825778193,
                0.16362228741364004,
                -0.02441503422781275,
                -1.0794176207617154,
                0.26750577066239434
            ],
            [
                -0.4255721696596465,
                -0.4668144159111856,
                -0.37885344023753786,
                -0.9497517244793741,
                -1.794768977747374,
                1.0764792673032708,
                -1.0870197353196804,
                0.19742519068059705,
                -1.8337214540299744,
                -0.4955986443327298,
                0.33368450321428184,
                -0.7275132010886095,
                -1.0440009395984589,
                -0.7969190979708128,
                -0.39682475156325897,
                -0.16137678906443395,
                -1.1256542344318055,
                -0.29461963070857994,
                0.6213296593704905,
                0.718432395102042,
                -1.0924956981499276,
                -0.7265685142382091,
                0.5700261598655384,
                0.9531275935383963,
                1.511863183574755,
                0.08679600419708727,
                -0.6253751434383017,
                -1.4303593947787405,
                -1.2650377937788075,
                0.21197829002617796,
                -0.9621989089127655,
                0.033435885057996856,
                -1.0084079136148794,
                0.5750168952887672,
                -0.5300744318290733,
                3.4065709261112884,
                1.06938517429525,
                -0.9249235347886039,
                -0.7047897488482506,
                0.4658045077355327,
                -1.1993850185708885,
                -0.1901005318012664,
                -0.33084072747321064,
                -0.09973418617331731,
                -0.7080264872449546,
                2.179908416299844,
                2.3682065307483255,
                -1.2303482273823572,
                -0.3722967792813933,
                -0.7271938890934181,
                0.3130797532312275,
                -1.5985889617364555,
                0.7407914558571578,
                0.7716070561548136,
                0.49604771440577805,
                -1.1592847342284733,
                1.06762200252653,
                -1.2680742541621268,
                -0.1361627749279658,
                -0.5069746901062899,
                1.266391919976836,
                -0.026468040633455096,
                -1.1228988637884532,
                1.4676188564883568,
                -0.15725644675397663,
                -1.1696298152652438,
                -0.9652809291226425,
                0.7943044365450305,
                -1.5193968610979764,
                -2.2232730368860167,
                -0.6969801441859286,
                0.2528194362756796,
                -0.9164288957941459,
                -0.4491535652083805,
                -1.5862083229606403,
                -1.1064505223594334,
                0.5729658789085417,
                -0.11161158078788815,
                2.1160134160772435,
                -0.1563378518750628,
                -1.9582019566693367,
                -0.3067617390411729,
                -0.725047541927227,
                -0.9619179989263623,
                -0.626045226423298,
                2.212315031018999,
                0.6341330618667276,
                -0.08811820178487825,
                1.0869128321983483,
                0.6295738244498251,
                -1.445465689023186,
                0.0044151760766551,
                -0.18033287630695508,
                -0.26270660480601354,
                -1.3621523930240496,
                0.8377546425513563,
                -0.935541583961956,
                -1.3259817668110003,
                -1.1435781879478757,
                -1.7678110013157873,
                -0.07563763574481071,
                -0.44910873423009595,
                2.49581559418704,
                -0.42641112938021836,
                0.17444049541216147,
                1.063159602549449,
                -0.8306723074865322,
                0.009137740205995913,
                0.4178215896589401,
                -1.082753979117537,
                0.18318320730223636,
                -0.7636435258187964,
                -1.6354003434094824,
                0.40503658172614915,
                1.3660479692592857,
                -0.2792889791548571,
                -1.4434616454828855,
                -1.5458503412480444,
                0.15590391478987636,
                -0.425545341235765,
                0.08320289137533833,
                0.055165179239610944,
                -0.3045629192008776,
                -0.05566161002238455,
                -0.40000178302869666,
                -1.4002302534887938,
                -0.9484678592134055,
                1.3788921520036774,
                -1.4671945971417135,
                -0.47251755059825506,
                -0.4962163931111571,
                -0.8704285109473872,
                -0.17686565168785864,
                -0.20089624694321875,
                1.4553472394837303,
                -1.7051510214416983,
                -1.1534001391990485,
                0.5465757172037357,
                -2.276693361861895,
                0.14534346652475477,
                0.184805325043033,
                -0.8847426883569685,
                1.721682836945089,
                -0.4312529996894686,
                -0.6663689005148982,
                -0.30865927818291183,
                -0.6916781025370992,
                -0.5903090733006413,
                1.4876427145604005,
                -1.5248252840288783,
                -0.2747655210012353,
                0.28162403874003383,
                -0.9749106719910285,
                0.479329421579719,
                0.07868516193562299,
                0.8698784258603245,
                1.3433084963537252,
                0.12320083828064833,
                1.2509524566358619,
                -0.4342620608030402,
                0.21940602689374578,
                -2.092489887958703,
                -0.5628105065455611,
                -0.20559024557990924,
                -0.5616889459279465,
                -1.1469673598473822,
                1.1707139334563974,
                0.03430798280612701,
                -0.3408092988762583,
                0.8331322351214111,
                1.4374905660981596,
                0.7779996877788172,
                1.9051629427261005,
                1.315115913254503,
                0.42373012513084385,
                -1.9180505956905307,
                -0.5059510502019365,
                -0.834349536581287,
                -0.7127268330469799,
                -0.49497091709385016,
                -0.817346698983101,
                -1.1453414646688016,
                0.09684662043859632,
                0.749361951514513,
                0.0941751542386732,
                0.28037810118483464,
                1.288815614326067,
                0.16785382889642403,
                1.773232504653793,
                1.9302242116802382,
                1.507412147860152,
                -0.1529270541755882,
                -0.7985547931908824,
                0.08427779309120148,
                -0.8854513062151583,
                0.5667879590054293,
                0.24959866417842844,
                -0.5589293336617307,
                0.23209507648174935,
                0.8643872231924845,
                -0.5877288185017394,
                0.32257551868359496,
                -0.5160349875527999,
                -0.028900736441689487,
                -0.60671904659379,
                -0.8662252880880312,
                -0.8103871162238955,
                -0.622671539168115,
                1.0473539010219746,
                -0.8903936317005504,
                -2.869814581688381,
                0.4432437813821787,
                0.04140113406458774,
                -0.30305433492753175,
                -0.07320348790061956,
                1.029800229120059,
                0.5787805525339935,
                0.7393975858009454,
                0.011818318899225197,
                0.12238343425034304,
                -1.486648770851248,
                -0.8853870715620891,
                0.19184730049372062,
                -2.4174170808550364,
                1.8262190011032908,
                1.52423656517395,
                -0.619695418659027,
                0.3527360745164658,
                0.9573311735433148,
                -1.6536777622902483,
                1.2640171875871076,
                -0.5429373088549813,
                -0.17655352535167987,
                -0.9648019802938732,
                -0.7579044681812096,
                0.6566603693129078,
                -0.7903509971983835,
                -0.23372734762777905,
                -0.5899290142789912,
                0.6646480879704366,
                -0.31566450932697476,
                1.8349126320495979,
                1.3712797191036834,
                0.4501904656990034,
                2.186211697457721,
                0.20134100509263347,
                0.7982260161206802,
                1.7740074434517232,
                -0.20116511446214239,
                -1.998159399230467,
                -0.26756576899002416,
                0.2016388079995778,
                -1.123035182457759,
                1.0597925093240999,
                -1.2314351338189122,
                -1.6227541603946216,
                -0.013402531515776778,
                -0.11005487078947289,
                -2.1313994267340566,
                -1.169293169309965,
                0.7589137818345456,
                0.45592173884898163,
                -0.0648730788131587,
                0.8796718009914334,
                -0.4945480589527716,
                -0.35891415463904025,
                0.23368148449024811,
                -0.5853225565801952,
                -2.1602864986216814,
                0.1443646770290208,
                0.4923068641976648,
                2.8050246422003435,
                0.47302036709762973,
                1.2258222597251058,
                1.2677340471180865,
                0.33797235704838474,
                -0.09302481663060731,
                -1.1647115985036351,
                -2.975542972039745,
                -0.6942173720259065,
                -1.2641249385255395,
                0.6721258392737854,
                1.7596489746634338,
                -1.826656960560254,
                1.1706065352188264,
                -1.0566830405840033,
                -0.23534781472445113,
                0.624834925364088,
                0.14029507113016304,
                -0.44235027494970797,
                0.18919028750380834,
                -0.9608890767802051,
                0.4254732739929021,
                -3.729161455027794,
                0.4656574273250523,
                -0.43011824065534077,
                -1.5629033335087879,
                -1.880212489534782,
                -0.3869544582366043,
                0.17550579333040436,
                1.2166980290566616,
                1.3447534107445387,
                3.3468168951613775,
                1.3732588740146217,
                -0.7418408847387445,
                -0.7409244894782444,
                -1.351750966326983,
                0.6760163039642346,
                0.524294723879194,
                -0.513790136445091,
                -0.4883965318265677,
                0.2688767146455141,
                -0.14196630912429972,
                0.922628395233942,
                0.3809417793938109,
                0.8293140312808821,
                -0.074026152590736,
                -0.5681756177325388,
                0.05765971580669653,
                -0.529617080126903,
                0.5980113780268029,
                -0.8259343656398358,
                0.29783537899384566,
                -1.097083417521165,
                -1.741158596986536,
                -3.2329691031046495,
                -4.171927604430199,
                2.0053162334919645,
                3.4001558278626716,
                2.374583728112754,
                2.6296056453201206,
                1.2644682808685839,
                1.8930193384138867,
                0.8912142362136595,
                -0.643804934808459,
                0.4164080242601263,
                0.9406244253063618,
                -1.4396089278474964,
                -0.7115754695203452,
                -0.1403331711745781,
                -0.23799095574599477,
                0.7942167973120657,
                0.14135522088913072,
                1.6644257885973397,
                -1.1605153322091313,
                -0.49648575066093253,
                -0.6091791248012038,
                -1.1912872496364628,
                0.21057855434660214,
                0.5988759239310234,
                -1.0381892872586507,
                -1.7451277992556813,
                -2.453413927985115,
                -3.234329863959917,
                -1.2922354072021458,
                2.3953874028640687,
                2.940044898010065,
                1.1508012380621122,
                2.0092284172501502,
                1.8583260837688245,
                3.073436988792064,
                -0.8340878593739108,
                0.4291015727925246,
                -1.2036619812906288,
                0.3260133635652154,
                0.525013422792984,
                -0.8915430889434716,
                -1.0078668414812364,
                -0.5106131405053019,
                0.04815524981116664,
                0.08519822503053677,
                1.5406854610651173,
                0.6734565984537476,
                -0.5914013671402512,
                0.5246885791138661,
                -0.40623101470638684,
                0.6763252577097916,
                -0.595210804457168,
                -1.8634972976405315,
                -0.8336994595382576,
                -2.298660742837653,
                -2.616612756780283,
                -0.4141519908128663,
                0.05417857238244198,
                1.0223751637209988,
                -0.25674739487825105,
                0.26653170022885037,
                0.9644299760339812,
                -1.1905582245903394,
                0.3650875397463638,
                1.3750601792379151,
                -0.8676521606454906,
                -0.4640045674739793,
                -1.1105245742047347,
                0.785872548305723,
                0.05239058347554737,
                -0.44837082757966384,
                0.17165785433749012,
                0.5766191461107348,
                1.9064368935075784,
                0.9945625778797804,
                -1.0551073514014124,
                1.0692740546837802,
                -0.18314157433373196,
                -0.3714884737411366,
                0.36510411508447027,
                -1.0715356456946927,
                -2.9339256866596157,
                -2.4017536472338343,
                -2.5826476663913334,
                0.805159614585377,
                0.3948179991506913,
                3.0012052224910803,
                -1.5676003384308155,
                0.21547018801242643,
                -0.563584762139225,
                -1.831126625333221,
                1.0379697943937334,
                -0.5398332013972273,
                -1.5620347543242523,
                -1.0536534946935017,
                -0.3514958061110316,
                -0.6788016157217055,
                -2.3938844678046847,
                -0.9909646192862505,
                0.7116024271463854,
                1.2699720402992136,
                -0.8908294486903364,
                0.06493510987620049,
                -0.02591215243611294,
                0.8020540712043582,
                -0.17691966817987512,
                -1.0999876408747808,
                -1.2135757007061552,
                -1.582249789955438,
                -1.2650274432488953,
                -1.4773109590979976,
                -2.9413265837880744,
                0.4262076659957388,
                -0.07002583766751601,
                0.5503085850873491,
                -0.240221365791867,
                -0.6554194186492761,
                0.09941040842324786,
                -0.046509481524933394,
                -1.0655127787360166,
                -0.8303579986595839,
                2.518795943742929,
                -0.01902959648661537,
                0.7933359441475877,
                0.0959449580473816,
                0.10063690457239369,
                1.987868950992848,
                1.2383742536899476,
                1.2354338907078743,
                -0.3557141498895309,
                -0.21498761029234842,
                -0.007473724765217705,
                1.322839520201947,
                -0.9926915872132086,
                -1.5752566655977631,
                -1.2034054275472812,
                -1.6358278652247267,
                -1.285553979140615,
                -1.4762605604983685,
                -1.0416228293813692,
                0.3453729563647149,
                -0.39787016174864415,
                0.9752671068023956,
                0.867874729561229,
                0.7296568955493515,
                0.3425450639440121,
                -0.26530341946238817,
                0.34504540472234935,
                0.1675915568049782,
                -1.2416536329297212,
                0.05847379058428864,
                -0.0283177344668641,
                0.8171835633566246,
                0.016156859611202414,
                -1.6068245844388134,
                -1.2758175729949184,
                0.11185718433300047,
                1.055968585255036,
                1.1452188170062967,
                1.350865317826273,
                0.11629414211751815,
                -2.9959123915648034,
                -2.398361487857657,
                -0.9370483181826519,
                -1.6543156503440593,
                -1.697340171522726,
                -1.2688536703979996,
                0.9828606774851474,
                0.601910498181933,
                1.3096370580180818,
                1.229284322874508,
                -0.197588059389991,
                -0.4225422765554736,
                -0.7004461890547309,
                -0.3383047999028751,
                0.3190135099661505,
                2.4576573621746416,
                -1.5328002462667354,
                0.39482663539601565,
                1.505233203766397,
                -0.16420142110723884,
                0.5461789166956461,
                -1.7316484110173604,
                0.9999151962790858,
                0.6584068938538014,
                0.2977032825260423,
                0.1349754165134562,
                -0.2998968913496314,
                -1.089747216161109,
                -1.5815394681960315,
                -0.38169535522703985,
                -2.272287106464102,
                0.7597878868742574,
                0.3037242623546817,
                0.1275835781434367,
                0.27815231903901766,
                2.028093158602897,
                -0.43724609758606897,
                -0.2395183753493323,
                0.962003556058609,
                0.5026026586761201,
                -0.9015640157248748,
                -1.267626749143985,
                -1.623602338922249,
                0.528519333877622,
                0.6298240811748824,
                2.049710529981823,
                0.6508778883832766,
                0.13986558572579927,
                -1.375690935617668,
                0.24047855604115337,
                -0.09641075621974757,
                -1.5609657000531338,
                0.12249324889872627,
                -0.5815623394671771,
                0.6695674434226053,
                0.9422129223672107,
                -0.4439561779043741,
                0.12723641525730967,
                0.23856416376626768,
                -1.2925180097858726,
                0.48194050603431754,
                -1.3414722357650197,
                -0.6324959751146471,
                0.025823612205546045,
                -0.9602673236258226,
                -0.8774993540774987,
                1.4484354062408455,
                0.68743565014267,
                -1.0258909713167477,
                2.2540425032079527,
                1.4095135011373774,
                -1.0613752739998397,
                -1.326571149182029,
                0.13395140240743436,
                0.09942265081086761,
                0.35881809691964783,
                -0.9549739413258079,
                -0.9953013636640454,
                -0.3255801930708721,
                0.5597222071780293,
                1.086014267254716,
                1.2878809391186716,
                -0.10626832069153538,
                -0.028997217148692574,
                1.5353251011969535,
                -1.5446463857430552,
                0.6855591117475178,
                -0.8021096456771033,
                0.16882118363457457,
                0.8054361024890995,
                -0.7866723679245841,
                1.763263889177114,
                -1.6648087417989108,
                -0.9889717560313019,
                0.37131657151114766,
                0.3950159676208102,
                -0.14701118029181662,
                0.0996617378839405,
                1.3248793943818027,
                -1.1437752040985512,
                1.8149056026172006,
                -0.6941126514397643,
                -0.3371600484161956,
                -0.9566378722268973,
                1.3720290663708035,
                -0.33952863900211105,
                0.48910817089859,
                0.7725346414346799,
                -0.2064867977735042,
                -1.1067387921752236,
                -0.5681429915759487,
                1.4461163874319138,
                -1.5642744669049151,
                -0.23941173603133478,
                -0.053746708769772035,
                -0.780383621619377,
                -0.19509365089410527,
                0.24665238341018517,
                -0.4222883233336812,
                -0.041095234396906516,
                0.93338980776178,
                -1.003547567381828,
                1.9659205934404433,
                -2.4819700532473705,
                2.1953095216069385,
                -0.13200513047209295,
                1.2054924605817274,
                -0.2843259805217774,
                -0.4892793941308624,
                1.339365695361469,
                1.184614420060338,
                -0.43414893994012643,
                0.19566863329075646,
                -0.9915458786628876,
                -1.1154341436823547,
                -0.3621975703241943,
                0.04157241718088574,
                -0.27251928290172134,
                1.2940842722896302,
                0.5289058252861079,
                0.09113237621116882,
                0.2541546066398883,
                0.1899696964216124,
                0.13518345520168676,
                -0.3384928872160394,
                0.34734955578524196,
                -0.5790619641388275,
                0.47448304704245525,
                -2.0431309304686915,
                0.551535141569285,
                0.6212447243558082,
                1.0914239645180772,
                -1.9299484620103118,
                0.5070906986979627,
                -1.699555604743449,
                0.6735305014729189,
                -0.0885032063829565,
                0.7670418786298409,
                -1.1789095751824252,
                -0.36868908931210687,
                2.803839477058801,
                0.5963083113891553,
                -1.0077147604234697,
                0.2622446287143829,
                0.6291608201845056,
                1.453335031068306,
                0.011620863579457798,
                0.7970545392089606,
                0.5713894326299851,
                -0.7326770089949386,
                -0.19103572029492336,
                -0.6182152719736176,
                0.6236728299971946,
                0.17994631192898403,
                -0.41911211357768785,
                -0.13877304383316885,
                -0.7604037232214923,
                -1.913625865384102,
                0.0885690025230761,
                0.5139660482876258,
                -0.2500951252316058,
                -0.5978111311700146,
                1.1440251787024833,
                -0.045912726868030725,
                -0.026204836243457343,
                -0.2631136865408696,
                -0.9464011538739833,
                0.5032415783610833,
                -0.07015953084486404,
                -0.6456605556269153,
                2.373782510642347,
                -0.3650448502715108,
                0.1593376100799244,
                -0.7082793982364118,
                -0.20812985029065553,
                0.09694756317611108,
                -0.8895573016244677,
                -1.0971318797783738,
                0.015600870091411133,
                -0.37602024590193533,
                -0.3218963051025946,
                -0.5205096355045215,
                -0.5006249083549119,
                0.0009497985173129337,
                0.8785912093871037,
                -0.13544532257320407,
                1.2974542006625531,
                -0.15833086693655551,
                -0.9581215915082744,
                1.410170844660902,
                -1.1204647076880907,
                -0.2740392868128612,
                0.28102953678238013,
                -1.5776003975594144,
                -1.1351640523444577,
                1.3379280464471524,
                -0.7923293463194001,
                -0.5967484687515134,
                -0.4580544347622002,
                0.14334626616283264,
                -0.6613199226111913,
                -0.06867853590712605,
                -0.9801988326910223,
                0.07517654396585596,
                0.9860136646708731,
                1.6449191553456624,
                -0.7753714903513337,
                -1.7908113367253153,
                -0.08030418004180279,
                0.7929340857444522,
                -1.5272663576296415,
                -1.7304045573402773,
                -1.382659259138651,
                -0.5673215110212774,
                -2.6728011781524867,
                -0.18795636782342104,
                -1.3189124258445233,
                -0.9839665235464454,
                -0.004214943488639608,
                1.2660887812815458,
                -0.1425165487439923,
                -0.20773822178774443,
                -0.3444801105703121,
                -0.735971118521447,
                0.31702145429352496,
                0.061158024436123684,
                0.3423941504146303,
                0.5092372499598722,
                -0.737539440231936,
                1.0987382165299588,
                -1.2135757941377563,
                -0.41010412878145447,
                0.23551721340233325,
                0.2942370831223408,
                1.0695546975080275,
                0.29339394933275603,
                -0.03661696638241391,
                0.7621220100690937,
                -0.5690945840943752,
                -0.41261951916970613,
                0.1068760186438724,
                0.8412808923917876,
                -0.6786847308349638,
                -1.74796962109902,
                -0.37083992095068813,
                -1.5410716595409382,
                0.08481009368152091,
                0.4653797605012775,
                0.3931947912650438,
                0.14078664345211298,
                1.9969038793638043,
                1.7755102877260611,
                -0.5258358060130279,
                -0.23539793736456732,
                0.5291115142268757,
                -1.5722175956015259,
                1.1960806751719022,
                -2.631581029359733,
                -0.6361975141882509,
                1.3632151468762284,
                -0.9620993280463949,
                1.582063173121671,
                -0.11649520806416502,
                -0.30674921812150163,
                0.2187224722321086,
                0.1633537851337794,
                -0.7382522733192372,
                0.6988787779242719,
                0.06156234871295739,
                -0.01168591410655351,
                0.20370135100013637,
                0.6669258770087816,
                1.5654678970134264,
                2.6049159275336464,
                0.40550865066053027,
                -0.042947746826376226,
                0.29931199581174583
            ],
            [
                -1.345537345085612,
                1.6072698277611497,
                1.853455937893229,
                1.6337968130359601,
                -0.5626549545267048,
                -0.3888867446764447,
                0.10961321846964137,
                -2.505061544022562,
                0.4027296420190151,
                -0.09890548967895177,
                -0.3881998290342845,
                0.9657977544865474,
                -1.6999762621134797,
                -1.0832662581998687,
                -0.2917489746787745,
                0.8539088869311656,
                -0.25732255187839576,
                0.21490744849055388,
                0.011249093698677685,
                -0.5101616191152196,
                -0.7186919410667449,
                0.36320562418699626,
                1.2512194344029883,
                -0.7584350973201447,
                0.11156331549398511,
                0.26490604340186097,
                -2.991625291429147,
                -0.4914566490874979,
                2.2380697736829283,
                1.1828238668040347,
                -0.38524768196798886,
                -0.7070431749789826,
                1.9435334004347853,
                0.7713154910286704,
                -0.015475198462108125,
                0.13861492001286144,
                -0.09426756352304162,
                -0.5854740762258361,
                0.24263775874056515,
                0.20683531680591638,
                1.005114443001522,
                -0.7949100229677847,
                1.092709028681268,
                0.7130178636337142,
                -0.3241867296388213,
                1.5410188315159035,
                1.1659429582029341,
                0.6732197662974342,
                2.22984838685079,
                -1.7944030626385459,
                1.3385301224419761,
                1.367094227529328,
                1.810184327217243,
                0.07236043406070297,
                1.9153204344710737,
                -0.5807005353821524,
                -2.7758172861678756,
                0.052230304850643956,
                -1.073000447241603,
                -0.5860287789713547,
                1.4622308374077488,
                0.4215272055508399,
                1.0393366209767236,
                -1.1787857560611599,
                1.6104145065120603,
                0.06737143930250027,
                -0.31639476543801887,
                -0.45839519438821963,
                0.6832223486676015,
                -0.5248101221068606,
                -1.5706113246507987,
                -0.07805096178202081,
                0.6367023191114333,
                -1.7848278949369984,
                0.1308029024066881,
                0.21838136962530946,
                -0.2718893463912335,
                -0.2116651465637768,
                -1.0318366419390714,
                2.442260070066677,
                -1.1079712027994804,
                0.4003731511399889,
                -1.1695680350420243,
                -0.10735424670990983,
                0.008540353551166889,
                -0.3746144545214407,
                -1.342830146676406,
                -0.2832926021380439,
                -0.33413118892780613,
                -0.8090135824566527,
                0.930132838833207,
                -0.5371683676580075,
                0.7643654872389993,
                0.2690754044344598,
                1.8303684599843597,
                1.8624777037270446,
                0.8234025327228274,
                -0.4383505662901709,
                -1.729457127137286,
                -1.6239040934883973,
                0.008452540368195469,
                -2.3099730108718433,
                -0.1088068675072392,
                0.34631059347003984,
                0.38385979177905866,
                0.21097484872840933,
                -0.6776632668909642,
                1.261552463593201,
                0.047846508469589495,
                0.9433738728422006,
                1.064009249019545,
                0.6692724682514106,
                -0.16928279419045844,
                -1.453963268952712,
                0.08713321136363168,
                -1.9096993059723093,
                -0.3372919466585398,
                -1.5269300158679096,
                -0.8771570839267531,
                -0.14148877429048434,
                1.22911292104368,
                1.1586943101232254,
                -1.3040970132119747,
                0.29524341170682905,
                -0.6873709174580227,
                -1.546576674546218,
                -2.32784712601116,
                -1.9165873779915685,
                -2.742503145420264,
                -2.272604916589908,
                -0.9556096703740736,
                0.6466602306594804,
                -0.7328092867278547,
                -0.29230199791991845,
                -1.5075491449124614,
                -2.048427023599775,
                -1.2632417783976913,
                -0.5478561366573076,
                2.9308205828883502,
                2.558346901977249,
                0.13742706680108072,
                -1.5172099448209617,
                0.4211215756122344,
                0.8256106704986269,
                -0.875119648700731,
                0.5272891594474026,
                1.6348315886958493,
                1.8766541123095088,
                -1.2126069860682254,
                -0.8570133036103749,
                0.7720305527393553,
                1.8335296493466011,
                0.7890465143080677,
                0.9682059222156177,
                -0.7919000056038148,
                0.17331044841627272,
                -1.1259218705129976,
                -1.3114650430001185,
                -1.66475141498361,
                -0.0484287996004346,
                -1.0650412321907756,
                -1.6783873888431615,
                -0.5394575170636143,
                -0.08956334674836991,
                -0.22157211433626203,
                -0.14882723463385722,
                -0.5743723499719326,
                -0.8005006077217323,
                0.3633308811277354,
                -1.6281890618663053,
                1.7374286556751337,
                -0.7637773447236913,
                1.4177297419568247,
                -0.0323369854948517,
                0.5246053576866172,
                -0.6814103518952153,
                1.0895127803910734,
                0.9234733101625167,
                0.5917105333455294,
                1.7761275027018553,
                3.548611883949688,
                1.4204603360506107,
                1.6707145852151986,
                0.39614844834518415,
                2.27434055205242,
                1.0577803052042771,
                2.56214613801026,
                -0.41009447934797405,
                1.102061465879319,
                -1.7503468154500244,
                -1.0120347294197258,
                -0.7937930943874628,
                -1.6002925239567531,
                0.7387918151429597,
                -1.3573751127742089,
                -0.8412925186655025,
                0.39275820370814973,
                -0.3175622924088659,
                0.6122112894035217,
                0.990037063404718,
                -0.6201572673997596,
                -0.7847014904771946,
                0.3078993710353846,
                0.13951113202454138,
                1.3734989850329027,
                -0.43104208622108436,
                0.9948681052136701,
                0.14687777599843133,
                2.818310060275519,
                1.5234315335215074,
                0.7229735844114308,
                1.125525815790498,
                1.933380497129228,
                -0.020035657402678583,
                -1.0538683533964919,
                -0.344733089294298,
                -0.17365276045301128,
                -0.2502280140867348,
                -1.937115219528922,
                -2.1316316429422066,
                -0.9751960724992339,
                1.00305805230651,
                1.4946932131727382,
                0.3651403971952907,
                0.1221764034502212,
                0.4843445566854176,
                0.7883451137852182,
                -0.0986781455537722,
                2.789275951452736,
                0.08349733593015146,
                -0.09215987290312251,
                -0.03704709716063333,
                1.3290809173390847,
                -0.9688335869024318,
                -0.7289170117635975,
                0.8813995400597576,
                1.7825605847177601,
                0.6207691830421506,
                2.5278151331061554,
                -0.08948050920795021,
                0.6329230874745029,
                0.4222347933855434,
                0.11394049156649341,
                0.7139555009916878,
                0.07614394988251068,
                0.25127212664836135,
                -0.24479219782350292,
                -1.2538498835738978,
                -1.5129440242693566,
                -1.0868397705183188,
                -0.035845266431392124,
                0.5175327378649305,
                -0.3797822932837187,
                0.7352318264646129,
                -1.4292358432616192,
                1.9616807380219676,
                0.591952316110268,
                -0.014343348426228756,
                0.5276668340999692,
                0.36491169286095865,
                0.7505259762334912,
                1.9790583287571808,
                1.7353668465644247,
                2.1266540638724596,
                1.599566586727345,
                3.4104021550127985,
                2.35563624374474,
                1.0003084052156999,
                2.0374749256592577,
                0.30914389933173436,
                1.766107417430343,
                -0.39770738550097184,
                0.007646121061866578,
                -0.4553156596179531,
                0.049694722500070884,
                -2.123964720035379,
                -0.3947222665156852,
                -0.029383836248422474,
                -0.09999845777440942,
                -2.1389931913200644,
                0.6998178437959819,
                0.13309054112690555,
                1.212149886845993,
                -0.2851030324154533,
                1.2286037042317204,
                1.8631305712353194,
                2.0011934716842865,
                -0.10448803342940098,
                0.0393528285395926,
                0.3884138175360019,
                0.49346890465324666,
                0.3956071652935,
                1.1624509671408714,
                2.694755361895397,
                3.5052302052762676,
                -0.9710055252246952,
                -0.028384237215496346,
                -0.40787085348404756,
                0.35644874500183793,
                0.4573523469536418,
                -0.22227274802918082,
                -0.11282392621906397,
                1.542775343380492,
                -1.1083380580344346,
                -0.5896430062544848,
                -1.8305041868133787,
                -0.3150181185763764,
                -0.768229659507928,
                0.29558802936658485,
                -0.5141051764804601,
                -0.19745705022230167,
                1.3614834580169883,
                2.6134813749979786,
                0.629989188562812,
                2.877253191373987,
                0.08329291622642335,
                0.5563870836155737,
                -0.070257568298883,
                0.08535721997407,
                -0.22836771805372483,
                0.3126215527948748,
                1.272448122042141,
                1.26732399086247,
                -0.34922752146529185,
                -0.8355957645288723,
                1.3483492156020132,
                1.016626167920369,
                1.8914434193832073,
                1.7911994434960752,
                1.9577648257815654,
                0.20653869053550264,
                0.9940875742248846,
                1.498017667423447,
                0.7163230864424154,
                1.2363350945375124,
                -0.7583382949946174,
                1.9365012648181874,
                0.9518146305068096,
                -0.8047495327304705,
                -1.311042454698519,
                0.6454941961703484,
                2.53938102467829,
                -1.6915706779287927,
                -0.4363779556129441,
                0.07272533376000195,
                -0.4682060186246573,
                -3.3973202399561586,
                -1.8191984411592201,
                -1.5750691396164163,
                0.37473182174402186,
                0.4786727023135405,
                0.22595211137890964,
                0.7360418673748903,
                1.4864706404705041,
                2.184650082679561,
                1.9909171457289008,
                1.0063941699230978,
                1.478734393456262,
                2.649655185014456,
                0.21535240153268514,
                -0.12152631141033846,
                -0.7463313155451137,
                0.15388298636562053,
                0.6361923892218309,
                0.8941719904409009,
                -0.17746460045430182,
                -0.35710127850757206,
                -0.7531696331262234,
                1.911490495246306,
                -0.10142228883515163,
                -0.6789863396244737,
                -0.5068336874395916,
                -0.37256710311695024,
                -0.5333410955807656,
                -1.3025601014647152,
                -3.6062947507444467,
                -1.813932862131466,
                2.867581501809174,
                1.6769289629037871,
                -0.4831352435849723,
                0.14661616954501172,
                1.972283830934939,
                -0.11272621267914903,
                1.73189521535218,
                -0.9026563570579187,
                -0.7845955638292448,
                -0.7988874374428785,
                -1.7491672681991803,
                0.25913871355965107,
                1.516973625775333,
                1.853250585255087,
                0.21281602227259672,
                -0.24790644935940678,
                -0.508738515213178,
                -1.7366079699330659,
                -0.23436447492298632,
                0.7151192395525776,
                -0.6635678775384385,
                -0.7854677354300964,
                -0.19848003745024922,
                -1.4534362655684054,
                -2.8151512250143758,
                -2.5607108360616437,
                0.2854549369491076,
                -2.374313390144749,
                1.4693086334866212,
                0.3613111680107872,
                0.31007347049713324,
                0.23642544841155136,
                -2.4202473159331794,
                0.9499063180770516,
                -0.8727183871625392,
                -1.167068941324354,
                -0.43562382792313636,
                -1.3770024239817509,
                -0.2211446948477078,
                1.639857310588941,
                0.32586960542390947,
                1.8427836030968454,
                -0.9070885270548541,
                1.5525229470092519,
                1.924584887096608,
                -0.45885884702304064,
                -2.7117589109932223,
                0.8488033540746367,
                -0.6986980138436577,
                -1.3377912606711426,
                -1.0587482073150551,
                -3.3848392060844317,
                -2.9852419098296443,
                -0.7827518094058004,
                0.8427618039464411,
                -1.5661362238609593,
                0.3381965120681725,
                -1.6996064324066593,
                -0.745154180338657,
                1.4797335702756749,
                0.10472875895634677,
                0.3791178249940732,
                -0.06360679511137685,
                -0.10244741363570053,
                -0.9973949442761398,
                0.093209160732475,
                -0.7387764754254633,
                1.8197249601135994,
                0.7905673455265428,
                -0.5780556280435758,
                0.7178707312486531,
                -2.4996890931690774,
                -0.4622287593873942,
                -2.144071620289091,
                -3.2020794535212,
                0.7361677336651908,
                0.5853607478506021,
                -1.615122105832125,
                -0.9674340071633412,
                -1.4874417890015927,
                -1.3371320913609852,
                0.8814775136267111,
                1.7653625812518543,
                0.29682146251630925,
                0.8201625686348788,
                -0.12347408094424547,
                -1.7692220489067119,
                -1.4548711690791887,
                -1.9057911107110137,
                -1.6123592527635968,
                -0.8928634510154714,
                -1.8600735579589134,
                -0.8955244511379357,
                -0.09563123973767149,
                2.5120986927804,
                -0.16515144816822058,
                0.3455471153957763,
                0.5957070896356031,
                -1.2582289230150847,
                -0.39286306364787854,
                -0.41001605845874767,
                0.7558868200610263,
                -1.095211160429093,
                0.23734237763541063,
                -0.7982473207479991,
                -1.5444445260386084,
                -1.0730985385509746,
                -1.4034564052439777,
                1.567009271074557,
                -0.5195002740236903,
                1.143076750053932,
                0.31082689877671843,
                0.14881602883394177,
                -1.2224748239643766,
                0.32500633328538026,
                0.9228298589905842,
                1.6734974093297814,
                -1.4895546966906765,
                -0.5689899092340609,
                -0.49610090249729494,
                -1.449045629192104,
                -0.4791892002857561,
                -1.3240775056482266,
                0.5922975693904169,
                0.850393063418837,
                0.1862165449520131,
                -0.24694544387706932,
                -0.2348380144255482,
                -1.2120819247260786,
                -0.20454861881355263,
                -0.26844797494985684,
                0.14007722936502176,
                -0.017528830796445544,
                -1.715843267167951,
                -0.6977876462349796,
                -0.950400405381324,
                1.461370784757873,
                0.8989273489313907,
                2.2587551354120436,
                -0.2918544879642937,
                -0.99067471463005,
                1.236720220086769,
                0.6325678181808814,
                -1.2561545366424487,
                -0.44233996049715174,
                0.6338137079106049,
                -0.8422628088183034,
                -0.571425012654673,
                0.344826666862536,
                0.06143375837387715,
                -1.6383313509858297,
                -0.47367670348038043,
                0.0512458674970794,
                0.13352259267965347,
                0.4635860538673039,
                0.6354205188193176,
                0.2697157296752138,
                -0.9990625811695124,
                -0.011869126786949267,
                -0.3590518392162432,
                -0.10961274780049429,
                0.9462371112794871,
                -0.7558765535442266,
                -0.9678888443470705,
                -0.6266140660106029,
                -0.2296815319706769,
                -2.306135505105984,
                0.06805102949092996,
                -0.9549345975839831,
                0.07438331763760975,
                -0.07381825645779048,
                -0.9356237098459851,
                -0.08336388405216201,
                -0.8136530867790156,
                -1.2292651366226264,
                -0.3000282835161624,
                0.949073983600769,
                0.712129426413752,
                -0.7618681145222179,
                0.32546172426774383,
                1.4772439166073656,
                -0.9888213526791695,
                -0.7221644056248153,
                -0.13109163950576475,
                0.2790178464472574,
                -1.8910784411320878,
                0.6358131026312916,
                -0.08700658361071337,
                -1.4099127661573887,
                0.3213618203882575,
                -0.6296809302959566,
                -2.71367959794009,
                -0.9795559175182129,
                0.8254234517875662,
                -2.0571118368205155,
                -0.9496152673586665,
                -0.7843732234322747,
                -0.08906465113937055,
                -1.035710998618071,
                0.17737106835112176,
                -1.7033283311755247,
                -0.012210395889406582,
                1.9062609748116346,
                -1.8599524989481313,
                -1.5909742527607182,
                -0.10156152237573748,
                0.16530650047647508,
                -0.5441513059118676,
                -0.12389823307220413,
                -0.8396424766869542,
                0.22394856517670345,
                -0.2614547923917858,
                -0.7834773266890004,
                0.11798944405642853,
                -1.7943317483209973,
                -1.1100448333540622,
                0.49585028768240913,
                -1.3836514209235715,
                -0.2742258222447035,
                -0.7124885430119228,
                -1.8360284701419207,
                1.0507521348354814,
                -1.0935350614242292,
                1.5264766248061106,
                -1.2594498470193967,
                -1.7071698672242412,
                -1.7544241445537285,
                -2.352611347400188,
                -1.0263425492640004,
                -1.4785371944430459,
                -1.2723101949969675,
                -0.8073116601697259,
                -1.6207195564704049,
                -0.3661286351284097,
                -0.8000320139318082,
                1.4344441702928934,
                0.36867584716752616,
                -0.5844157265160044,
                1.5135728378256947,
                -1.2844023662857393,
                0.6896645384247971,
                -0.39875379222372337,
                -0.25075875396761377,
                0.24490794404467875,
                -0.9764985074812867,
                -1.0661170568947094,
                -0.22547488687942094,
                -0.7540992699008077,
                -0.4952048051460732,
                0.464037919514371,
                -2.552020873270692,
                0.37272282809025703,
                -0.08467818635984833,
                1.4743786700487191,
                -1.1163329457441253,
                0.9365193813589942,
                0.8443905378977845,
                -0.7202624040461877,
                -0.6703395759898079,
                -0.7642284704125667,
                -0.8376792979221738,
                -1.2015024497906774,
                0.04159152480832825,
                2.068247074762264,
                -1.5824224581218689,
                -0.34343634618188024,
                0.06496162910703474,
                -0.7801322575048886,
                0.3474586662153804,
                0.27789613449915135,
                -1.7948792073887812,
                0.4715525975205499,
                0.19605240228726276,
                1.020945491801236,
                0.2257743145570113,
                -0.31251050967995153,
                -0.33140796087676727,
                -0.9092160528153675,
                1.1508306641645487,
                1.12584140225399,
                -1.8230328298303224,
                -1.6367369371529266,
                -0.12165008941225827,
                -0.11508191156187453,
                1.014890146398776,
                0.9148007523543016,
                -1.5924860636618527,
                0.3768506369358184,
                1.3935518859750886,
                -0.48875001232462933,
                0.41604437479286505,
                0.706964332062417,
                0.03965560510926431,
                0.7358707549182205,
                0.6811067330739728,
                0.1898693623318848,
                0.5963005314971667,
                0.9329523929454545,
                -0.5611430340430755,
                1.6041047279361629,
                1.8445799823356925,
                -0.7063562696426581,
                2.2490997291505823,
                1.636163019656665,
                -0.11576906353589504,
                2.0778902291365324,
                0.49050401498833757,
                -0.9149325492743245,
                2.212687910462641,
                1.0295637967820177,
                0.844506296297936,
                0.9346172317615526,
                0.511371745706818,
                -1.4313062265162304,
                1.5572011959053709,
                1.5982545676613076,
                0.4323009124843959,
                2.0442436091340803,
                0.48415766818873923,
                0.6994662748796254,
                0.45800494181537577,
                2.2143539551046465,
                -0.6348969026520522,
                1.1256303046412646,
                1.7795157655246987,
                0.08650671731095946,
                -1.2272906187980395,
                -0.8048396414856384,
                1.6176783945144753,
                2.6263687228313786,
                0.9823659593815477,
                2.0395259093585056,
                0.8767870196928261,
                3.388521210733735,
                -0.3772084749064823,
                0.5679494949156417,
                1.3693011976702831,
                1.2199467577706598,
                0.39161437622615936,
                1.4388044882254705,
                0.12819435114747416,
                0.18790809484792254,
                -0.3493945699374087,
                0.9465733053283153,
                -0.043940753469756906,
                0.042553675384584634,
                0.7984660029672468,
                -2.0261918071221365,
                1.3130476276957674,
                -0.0006092642828562585,
                0.9457333202293443,
                -0.9154431898636556,
                0.48695145797442696,
                -0.2189270602130861,
                1.2299325758561872,
                -0.6906339659342877,
                0.00018612541707410148,
                -2.13392129392409,
                1.4291906207832097,
                1.843846952946314,
                1.1211759102188166,
                2.442284152817051,
                1.1619880256108723,
                1.751771583039874,
                1.0296280571411567,
                1.8620822277219204,
                0.3643039649091628,
                2.4585899917487137,
                0.264971561793614,
                1.4304184355600067,
                0.8232870114579731,
                0.6153286759855137,
                1.144415801283553,
                0.8691957376335466,
                -0.16703954701383972,
                0.8638389609210765,
                -0.3103443896893162,
                0.00449395012916882,
                0.7181082897920597,
                1.2506146221331942,
                0.16131567719119097,
                -1.6643494289915157,
                -0.1789060057032457,
                -0.24769287588905425,
                0.4307402542029963,
                -0.7704997184825272,
                -0.609198279687574,
                -0.642068992407166,
                -0.3079259499267008,
                -0.5034730372651971,
                -0.23582876409611297,
                0.057128420985172915,
                -0.44535899911795984,
                1.8546690583290653,
                1.7487804426385827,
                0.17199528028438912,
                -0.8642672614714392,
                0.1907609521776952,
                2.78521821575172,
                -0.3584834377029862,
                -1.2017987231146892,
                0.623160930830998,
                -1.5306785667680118,
                0.6858588732652812,
                0.05617571491361502,
                0.37097293184608005,
                -0.21319730449254978
            ],
            [
                -1.6575372460301196,
                1.0345340594654873,
                -1.6319818216003703,
                -0.5738511361067896,
                -1.381518029026143,
                0.09868639683111116,
                -1.5544896001127217,
                -0.8579303833402111,
                1.5857877172561103,
                -1.0708815252900612,
                -0.7319910884394235,
                0.4098264761936099,
                -0.8648444602398985,
                0.7913514390136135,
                1.2270700309925229,
                -0.39184084942609426,
                -0.4608645066864843,
                -0.535281986473456,
                0.22186680427501215,
                -0.03709580025275432,
                -0.8873650729733871,
                1.205199342421212,
                -0.6351245438674932,
                -0.12680676301089489,
                -1.181653536194588,
                -0.02039782003313142,
                -1.6566027798367027,
                1.5717005680740983,
                -1.4060196923678,
                -1.1297959320833362,
                0.3681700463724795,
                0.0684351357872281,
                -0.662934863862328,
                0.827229780832257,
                -2.7190908258132103,
                -2.08722083359771,
                -1.284318174977781,
                0.6839785369369319,
                -0.45569220112782005,
                -0.31464823501886824,
                0.9306022384486549,
                0.5745360543801618,
                -0.24338546794302576,
                1.4569491129340648,
                0.7112055330996071,
                3.511700707143868,
                -1.6544316325238202,
                0.27556782384628314,
                -1.1993893786519516,
                -0.19915138173167396,
                -0.7755523247433493,
                0.32960278652366354,
                -0.1722690346161553,
                -0.015384698386548112,
                1.0728322366343142,
                -1.3081809786953253,
                -0.5708856175176392,
                1.4063061948878293,
                -0.04618994801065863,
                -0.9049286738366629,
                0.4168353612560196,
                1.5440534889160347,
                -0.7467109360988158,
                -0.4946575317586019,
                -0.8148683871167516,
                0.19956204603451083,
                -0.13167430550431464,
                0.7243106158657567,
                -1.0774669309211231,
                0.5834344921884425,
                1.8778651594241775,
                0.29553351642233366,
                0.2196549579039414,
                -0.13673064481999972,
                0.44887530003769593,
                -0.07846764612871929,
                -1.4723834075583246,
                1.9459003844156586,
                -0.6442034364448673,
                -0.643557276018898,
                -0.2908874918240091,
                0.8311597525041917,
                -0.7722387977762556,
                0.39011476265958117,
                0.3087337488203972,
                -1.1486831307028813,
                -0.6932396759879512,
                0.9845018076519131,
                1.1473555309728147,
                0.5587179441725799,
                -0.2930673018213818,
                -0.0003595758658164962,
                1.3876319091443066,
                2.266663726352887,
                2.3772899815758755,
                0.696111171268964,
                1.4341400009538463,
                2.9117344170294137,
                0.279650327024916,
                0.5901755027929776,
                0.4955770094902293,
                0.5362805606744955,
                0.6231879466509322,
                -0.24388263515910777,
                -0.8813747806343035,
                -0.4286543246836551,
                -0.3381121404699515,
                -0.4457460946793698,
                -0.6012348700151535,
                0.26118302168828794,
                1.1562564440002048,
                -0.689183013479944,
                -0.3160193864944895,
                -1.468471917700385,
                2.069459291628332,
                -0.06400715325941109,
                1.5024299375448118,
                -2.8872295336114115,
                -0.2427670664544062,
                -0.034818457926711954,
                1.2152554564356246,
                -0.22518943680413647,
                0.2733506009267306,
                -1.158661942576758,
                1.385638163759983,
                0.0042660002537153454,
                1.0377630174859322,
                -1.1693235560284372,
                0.7302099986574724,
                2.046909833324445,
                1.092790560693432,
                1.4604163964233676,
                2.328635201257886,
                -0.7020334905150133,
                1.0680717711690297,
                -1.2183795093619307,
                -0.14758728209354868,
                -0.31966521912736023,
                -1.2648796066160717,
                -0.20852856848765952,
                0.18318978630645436,
                0.29741855245558274,
                1.528042400914325,
                -0.4141767399466221,
                -0.7652776381735347,
                -0.05349717421644388,
                -1.3825366541911506,
                1.2602080105847113,
                1.124616618692784,
                0.18728800171091925,
                2.0336285632153817,
                1.7208063105113522,
                1.747302996525089,
                3.1349292462235625,
                1.5564296317361708,
                0.4003918846362186,
                1.7836959248705186,
                0.6285625147582181,
                0.8776166954147411,
                0.4300632227098155,
                0.009962436280703988,
                1.3355639518832056,
                -0.65414331839574,
                0.655753610228772,
                -1.4905028329343994,
                -0.973004843329955,
                1.1601847632381386,
                -0.3148548599778413,
                0.699530933500796,
                -2.175660239422205,
                -0.31583467357807643,
                -0.5103475058796773,
                1.6992294983717413,
                1.2092960137077196,
                0.3505898829391788,
                1.3504287150604022,
                1.4123289418423588,
                2.3516830834557485,
                1.1398340528506654,
                0.30833246466889175,
                1.7950119322882407,
                -0.5017757919035,
                -0.5441016728324399,
                1.5137936881083454,
                0.8750800705404633,
                -0.09424069403568261,
                -1.1075278707566132,
                -0.37429214825008406,
                -0.23186594251467715,
                0.9076453414844361,
                1.0570599964901768,
                -2.5950277211119666,
                -2.0902192630756233,
                -2.006560041902715,
                0.3747068775343643,
                0.4692815255368119,
                1.4470888507174677,
                0.6818678211995168,
                -1.4475770001193087,
                0.8276360523342996,
                0.9107533730155298,
                0.9710867087007459,
                -0.770849883936577,
                1.1282318338300208,
                1.429098287465283,
                1.9188298062190707,
                1.4554425019232673,
                0.949675356311532,
                0.36383838210280495,
                2.442248898358382,
                -0.9370158932385815,
                -0.3122234664954681,
                0.5368531439293914,
                1.454096721945152,
                0.17240016183013288,
                1.39705316316187,
                -0.9365661511880017,
                -0.26860882047599227,
                0.04157215723336763,
                -1.5510672002541737,
                1.2026860870939051,
                -0.7265351260671099,
                0.35427533543207507,
                0.25106861774206685,
                0.58238724373259,
                -0.695501507508102,
                0.2930868996758571,
                0.30681536188412295,
                -1.4879517695608235,
                -0.6908455850260976,
                2.4442491142344265,
                2.2505609020324906,
                2.958890805089367,
                1.5048592275823036,
                1.6533710684655225,
                0.4984701008490443,
                0.7576019770624974,
                -0.9950636976581256,
                2.198963117877312,
                2.395320841569017,
                -1.017411597404417,
                0.8398296936810955,
                1.403132655894967,
                -1.7029556280688105,
                0.7571748132845498,
                -1.1135388630994745,
                -0.408719112863199,
                -1.3418440494337676,
                -0.21789289651873275,
                0.53241252248681,
                -0.7786658314582957,
                2.320370608199804,
                1.4009154705571403,
                -0.8042471568080531,
                -0.3322563730960599,
                -0.5250028793773441,
                -0.08563607133201918,
                1.13331969394932,
                0.9336220479042158,
                1.0619496374846933,
                2.10409846450721,
                1.381729127770346,
                1.7357003262844928,
                0.5273836060620213,
                0.5784617878667234,
                -0.9092200393211726,
                -1.3025178172510734,
                -1.062987557948989,
                -0.32359905057770044,
                -1.4589681816552005,
                -0.34763746907832144,
                -0.808807976986044,
                -0.24679103450808226,
                -1.2313583478074757,
                -0.5794088236959427,
                -1.618741766593459,
                -1.5083767493889588,
                -2.235833017945998,
                -0.7772110196261506,
                0.9214784225727809,
                0.1805367798868793,
                -0.0231356395660534,
                -0.6470498128994892,
                -0.6225388628050492,
                0.9235599025737035,
                0.4981332909792613,
                0.04943008253036884,
                2.8611249567411003,
                1.4771069278839708,
                2.5133941541316065,
                0.4057149730594407,
                -0.10869548278176314,
                -0.03921495448777695,
                -1.5816639251660005,
                -1.4295763732442142,
                -0.46139212641076904,
                -1.4786385898198118,
                1.3903467090444401,
                -0.6595362945101393,
                0.7689656071876104,
                -0.20339694004472708,
                1.2036325635085585,
                -0.04737897251651518,
                0.49545970514817705,
                0.7021174889618931,
                -2.793202542228115,
                0.7900047079646719,
                0.21468272140116124,
                -0.1540310911433398,
                0.8525305905690346,
                -0.16347772503878927,
                0.07314097489056015,
                1.4583250581588592,
                0.49017139096546836,
                -0.7203340952630155,
                2.7051427165355246,
                0.7204109515944503,
                2.263485178437462,
                -0.5271230288589523,
                0.19329225233914452,
                -0.3392742429600825,
                -2.639369901455898,
                -2.42576127213225,
                -1.1405852268201464,
                0.05478771934355527,
                1.3533939712179104,
                0.2921406964226506,
                1.3168666885158695,
                -0.3099586139324007,
                0.11151136516870151,
                -1.759538283599384,
                -0.5774260431079407,
                -2.255838380241935,
                -0.6012951097638675,
                0.9068464868734326,
                -0.5626222528886043,
                0.5601652187104563,
                -0.41885569056563954,
                0.4458591519968555,
                -0.5744975511583976,
                -0.5593806826423827,
                0.22723149336778495,
                1.1855842211874315,
                0.6413069534308298,
                0.7130891425062631,
                -0.11171657614686878,
                0.05531354218747097,
                1.2052786286257022,
                -2.8515935649080224,
                0.059948747631898586,
                -3.4899275072995968,
                -1.0518543596399985,
                0.1594537848010172,
                1.8592028858608323,
                -0.18183920331501294,
                2.156715853009915,
                2.3996723126890807,
                2.0550405217115393,
                2.0151313422698287,
                0.49230918580471567,
                0.5408962719678317,
                -0.8456589104427735,
                0.27844053843461625,
                -0.9901242722178004,
                -0.3697870438991565,
                -0.3915121544094696,
                0.5998748358115911,
                0.3942498026619872,
                0.486367539712893,
                -1.4235437209621806,
                -0.29883106590248243,
